/*!
 * The following copyright notice may not be removed under any circumstances.
 * 
 * Copyright:
 * Copyright (c) 1990 Adobe Systems Incorporated.  All Rights Reserved.Helvetica
 * is a trademark of Linotype AG and/or its subsidiaries.
 * 
 * Full name:
 * HelveticaNeue-Condensed
 */
Cufon.registerFont({"w":204,"face":{"font-family":"Helvetica Neue","font-weight":500,"font-stretch":"normal","units-per-em":"1000","panose-1":"0 0 0 0 0 0 0 0 0 0","ascent":"800","descent":"-200","x-height":"14","bbox":"-164 -932 1000 212.509","underline-thickness":"50","underline-position":"-75","stemh":"66","stemv":"84","unicode-range":"U+0020-U+FB02"},"glyphs":{" ":{"w":240},"!":{"d":"99,-186r-16,-528r92,0r-16,528r-60,0xm83,0r0,-96r92,0r0,96r-92,0","w":258},"\"":{"d":"87,-460r0,-254r66,0r0,254r-66,0xm254,-460r0,-254r66,0r0,254r-66,0","w":407},"#":{"d":"79,0r26,-205r-82,0r0,-66r90,0r19,-154r-87,0r0,-66r96,0r25,-203r66,0r-25,203r106,0r25,-203r66,0r-25,203r78,0r0,66r-87,0r-19,154r83,0r0,66r-91,0r-26,205r-66,0r26,-205r-106,0r-26,205r-66,0xm198,-425r-19,154r106,0r19,-154r-106,0","w":480},"$":{"d":"259,-306r0,248v62,-5,108,-52,108,-121v0,-74,-48,-105,-108,-127xm217,-405r0,-231v-61,8,-95,46,-95,111v0,68,41,99,95,120xm217,-708r0,-58r42,0r0,58v122,6,178,72,180,194r-88,0v0,-66,-23,-115,-92,-122r0,245v92,31,200,54,200,198v0,150,-104,201,-200,207r0,94r-42,0r0,-94v-151,-6,-196,-89,-196,-232r88,0v0,73,4,150,108,160r0,-262v-90,-29,-187,-59,-187,-196v0,-63,26,-182,187,-192","w":480},"%":{"d":"177,-378v56,0,59,-56,59,-138v0,-82,-3,-138,-59,-138v-56,0,-59,56,-59,138v0,82,3,138,59,138xm186,14r310,-722r70,0r-310,722r-70,0xm582,-40v56,0,59,-56,59,-138v0,-82,-3,-138,-59,-138v-56,0,-59,56,-59,138v0,82,3,138,59,138xm177,-324v-119,0,-131,-92,-131,-192v0,-100,12,-192,131,-192v119,0,131,92,131,192v0,100,-12,192,-131,192xm582,14v-119,0,-131,-92,-131,-192v0,-100,12,-192,131,-192v119,0,131,92,131,192v0,100,-12,192,-131,192","w":759},"&":{"d":"238,-453v34,-35,84,-68,83,-125v0,-41,-30,-70,-72,-70v-43,0,-71,29,-71,70v0,40,36,91,60,125xm372,-127r-157,-227v-57,34,-102,88,-102,163v0,87,61,133,131,133v56,0,94,-30,128,-69xm275,-400r141,202v14,-36,23,-76,28,-139r78,0v0,52,-31,173,-58,208r92,129r-95,0r-48,-67v-55,52,-99,81,-176,81v-174,0,-212,-133,-212,-198v0,-100,77,-178,149,-224v-28,-49,-74,-101,-74,-166v0,-84,67,-140,148,-140v90,0,151,39,151,136v1,83,-71,132,-124,178","w":556},"\u2019":{"d":"74,-608r0,-106r92,0v-4,119,22,221,-92,254r0,-47v42,-19,45,-48,44,-101r-44,0","w":240},"(":{"d":"189,-714r48,0v-154,272,-143,625,0,898r-48,0v-192,-260,-194,-638,0,-898","w":241},")":{"d":"52,184r-48,0v154,-272,143,-625,0,-898r48,0v192,260,194,638,0,898","w":241},"*":{"d":"146,-595r0,-119r60,0r0,119r107,-41r22,58r-113,34r76,94r-50,37r-72,-102r-72,102r-50,-37r76,-94r-113,-34r22,-58","w":352},"+":{"d":"267,0r0,-220r-220,0r0,-66r220,0r0,-220r66,0r0,220r220,0r0,66r-220,0r0,220r-66,0","w":600},",":{"d":"74,0r0,-106r92,0v-4,119,22,221,-92,254r0,-47v42,-19,45,-48,44,-101r-44,0","w":240},"-":{"d":"54,-245r0,-78r244,0r0,78r-244,0","w":352},".":{"d":"74,0r0,-106r92,0r0,106r-92,0","w":240},"\/":{"d":"-10,14r232,-742r66,0r-232,742r-66,0","w":278},"0":{"d":"240,14v-191,0,-202,-190,-202,-358v0,-156,11,-364,202,-364v191,0,202,190,202,364v0,150,-11,358,-202,358xm126,-344v0,149,6,292,114,292v108,0,114,-143,114,-292v0,-156,-6,-298,-114,-298v-108,0,-114,142,-114,298","w":480},"1":{"d":"67,-532r0,-60v89,-5,171,-16,175,-116r60,0r0,708r-84,0r0,-532r-151,0","w":480},"2":{"d":"438,-78r0,78r-396,0v0,-166,114,-258,211,-339v58,-48,94,-92,94,-170v0,-61,-27,-127,-103,-127v-109,0,-112,113,-112,153r-88,0v0,-134,56,-225,201,-225v164,0,190,127,190,189v0,158,-133,236,-224,320v-38,35,-67,74,-77,121r304,0","w":480},"3":{"d":"180,-333r0,-66v101,11,152,-37,152,-125v0,-65,-24,-118,-92,-118v-93,0,-102,86,-102,138r-88,0v0,-121,57,-204,188,-204v148,0,182,105,182,184v0,73,-40,131,-110,154v80,16,131,67,131,165v0,129,-65,219,-201,219v-194,0,-201,-159,-201,-206r88,0v0,65,32,140,113,140v52,0,113,-26,113,-146v0,-100,-61,-146,-173,-135","w":480},"4":{"d":"284,-570r-178,327r180,0r0,-327r-2,0xm30,-250r256,-458r84,0r0,465r80,0r0,72r-80,0r0,171r-84,0r0,-171r-256,0r0,-79","w":480},"5":{"d":"58,-331r39,-363r316,0r0,78r-249,0r-28,205r2,2v29,-35,76,-53,124,-53v106,0,178,84,178,233v0,132,-58,243,-206,243v-168,0,-194,-139,-194,-196r88,0v0,37,14,130,108,130v100,0,116,-112,116,-184v0,-78,-29,-160,-118,-160v-61,0,-100,52,-100,69","w":480},"6":{"d":"429,-538r-88,0v0,-59,-33,-104,-93,-104v-118,0,-125,176,-125,213v0,18,-4,42,2,56v14,-26,57,-79,135,-79v123,0,185,91,185,224v0,137,-68,242,-200,242v-196,0,-210,-189,-210,-336v0,-162,10,-386,215,-386v165,0,179,137,179,170xm133,-216v0,74,24,164,112,164v88,0,112,-90,112,-164v0,-74,-18,-164,-112,-164v-94,0,-112,90,-112,164","w":480},"7":{"d":"442,-621v-101,132,-218,377,-236,621r-98,0v31,-238,128,-453,254,-616r-324,0r0,-78r404,0r0,73","w":480},"8":{"d":"37,-195v0,-95,40,-154,125,-182v-71,-29,-103,-75,-103,-151v0,-114,69,-180,181,-180v112,0,181,66,181,180v0,76,-32,122,-103,151v85,28,125,87,125,182v0,93,-44,209,-203,209v-159,0,-203,-116,-203,-209xm240,-642v-65,0,-93,49,-93,116v0,66,28,116,93,116v64,0,93,-50,93,-116v0,-67,-29,-116,-93,-116xm125,-198v0,83,33,146,115,146v82,0,115,-63,115,-146v0,-83,-33,-146,-115,-146v-82,0,-115,63,-115,146","w":480},"9":{"d":"51,-156r88,0v0,58,33,104,93,104v118,0,125,-177,125,-213v0,-18,4,-42,-2,-56v-14,26,-57,79,-135,79v-123,0,-185,-91,-185,-224v0,-137,68,-242,200,-242v196,0,210,190,210,336v0,162,-10,386,-215,386v-165,0,-179,-137,-179,-170xm347,-478v0,-75,-24,-164,-112,-164v-88,0,-112,89,-112,164v0,75,18,164,112,164v94,0,112,-89,112,-164","w":480},":":{"d":"74,-400r0,-106r92,0r0,106r-92,0xm74,0r0,-106r92,0r0,106r-92,0","w":240},";":{"d":"74,0r0,-106r92,0v-4,119,22,221,-92,254r0,-47v42,-19,45,-48,44,-101r-44,0xm74,-400r0,-106r92,0r0,106r-92,0","w":240},"<":{"d":"47,-223r0,-60r506,-231r0,66r-428,195r428,195r0,66","w":600},"=":{"d":"47,-322r0,-66r506,0r0,66r-506,0xm47,-118r0,-66r506,0r0,66r-506,0","w":600},">":{"d":"47,8r0,-66r428,-195r-428,-195r0,-66r506,231r0,60","w":600},"?":{"d":"119,-504r-84,0v0,-118,57,-218,186,-218v183,0,238,209,138,329v-41,50,-125,113,-110,207r-78,0v0,-40,0,-87,19,-123v23,-43,77,-98,101,-128v53,-67,40,-213,-67,-213v-97,0,-105,97,-105,146xm165,0r0,-96r92,0r0,96r-92,0","w":444},"@":{"d":"240,-293v0,56,40,96,94,96v93,0,155,-136,155,-212v0,-45,-30,-100,-81,-100v-97,0,-168,123,-168,216xm524,-487r22,-63r56,0r-84,282v-10,30,-20,71,20,71v91,0,167,-107,167,-218v0,-151,-134,-253,-305,-253v-172,0,-305,136,-305,311v0,178,133,311,305,311v123,0,217,-38,271,-111r63,0v-64,110,-180,171,-334,171v-205,0,-371,-166,-371,-371v0,-205,166,-371,371,-371v216,0,371,129,371,309v0,173,-140,282,-258,282v-43,0,-62,-23,-72,-59v-31,32,-66,59,-125,59v-73,0,-142,-61,-142,-150v0,-138,93,-282,234,-282v51,0,91,26,116,82","w":800},"A":{"d":"-8,0r206,-714r118,0r192,714r-92,0r-51,-196r-228,0r-53,196r-92,0xm254,-613r-99,345r192,0r-91,-345r-2,0","w":500},"B":{"d":"146,-340r0,268r120,0v93,0,125,-63,125,-132v-2,-141,-112,-141,-245,-136xm58,0r0,-714v201,5,397,-46,402,183v2,67,-43,128,-104,151v88,21,127,88,127,176v0,145,-82,204,-231,204r-194,0xm146,-642r0,236r101,0v37,0,121,-9,121,-119v0,-74,-37,-117,-123,-117r-99,0","w":519},"C":{"d":"403,-245r92,0v-8,135,-61,259,-217,259v-203,0,-230,-191,-230,-371v0,-180,33,-371,230,-371v146,0,207,82,211,222r-92,0v-2,-81,-28,-150,-119,-150v-122,0,-138,134,-138,299v0,165,16,299,138,299v107,0,122,-100,125,-187","w":519},"D":{"d":"155,-642r0,570r92,0v152,0,169,-156,169,-284v0,-138,-9,-286,-169,-286r-92,0xm67,0r0,-714r191,0v222,0,250,160,250,357v0,180,-45,357,-241,357r-200,0","w":556},"E":{"d":"58,0r0,-714r369,0r0,78r-281,0r0,224r265,0r0,78r-265,0r0,256r293,0r0,78r-381,0","w":463},"F":{"d":"58,0r0,-714r369,0r0,78r-281,0r0,224r265,0r0,78r-265,0r0,334r-88,0","w":444},"G":{"d":"489,-516r-92,0v-4,-75,-32,-140,-119,-140v-122,0,-138,134,-138,299v0,165,16,299,138,299v122,0,131,-146,131,-241r-141,0r0,-72r221,0r0,371r-66,0v-2,-31,4,-70,-2,-97v-19,61,-76,111,-154,111v-186,0,-219,-179,-219,-371v0,-180,33,-371,230,-371v205,0,210,175,211,212","w":537},"H":{"d":"479,-714r0,714r-88,0r0,-344r-245,0r0,344r-88,0r0,-714r88,0r0,292r245,0r0,-292r88,0","w":537},"I":{"d":"58,0r0,-714r88,0r0,714r-88,0"},"J":{"d":"368,-714r0,509v0,127,-32,219,-179,219v-143,0,-176,-93,-167,-222r84,0v-4,80,3,150,82,150v80,0,92,-52,92,-150r0,-506r88,0","w":426},"K":{"d":"58,0r0,-714r88,0r0,346r2,0r247,-346r98,0r-216,298r234,416r-98,0r-193,-344r-74,101r0,243r-88,0","w":500},"L":{"d":"58,0r0,-714r88,0r0,636r290,0r0,78r-378,0","w":444},"M":{"d":"60,0r0,-714r148,0r143,566r2,0r143,-566r148,0r0,714r-88,0r0,-624r-2,0r-158,624r-88,0r-158,-624r-2,0r0,624r-88,0","w":704},"N":{"d":"58,0r0,-714r114,0r236,596r2,0r0,-596r88,0r0,714r-121,0r-229,-578r-2,0r0,578r-88,0","w":556},"O":{"d":"278,-728v197,0,230,191,230,371v0,180,-33,371,-230,371v-197,0,-230,-191,-230,-371v0,-180,33,-371,230,-371xm278,-656v-122,0,-138,134,-138,299v0,165,16,299,138,299v122,0,138,-134,138,-299v0,-165,-16,-299,-138,-299","w":556},"P":{"d":"58,0r0,-714r182,0v62,0,221,0,221,205v0,133,-85,207,-206,207r-109,0r0,302r-88,0xm146,-642r0,268r105,0v64,0,118,-44,118,-139v0,-78,-37,-129,-124,-129r-99,0","w":481},"Q":{"d":"473,43r-72,-65v-31,23,-72,36,-123,36v-197,0,-230,-191,-230,-371v0,-180,33,-371,230,-371v197,0,230,191,230,371v0,103,-11,210,-58,282r72,66xm343,-75r-69,-62r49,-54r66,60v22,-54,27,-135,27,-226v0,-165,-16,-299,-138,-299v-122,0,-138,134,-138,299v0,165,16,299,138,299v26,0,48,-6,65,-17","w":556},"R":{"d":"58,0r0,-714r231,0v112,0,183,66,183,179v0,78,-27,160,-110,180r0,2v62,7,97,58,101,119r6,122v4,79,17,99,38,112r-106,0v-30,-43,-23,-144,-30,-214v-16,-149,-108,-92,-225,-104r0,318r-88,0xm146,-642r0,252r87,0v52,0,147,0,147,-138v0,-70,-47,-114,-129,-114r-105,0","w":519},"S":{"d":"449,-529r-88,0v0,-75,-27,-127,-111,-127v-74,0,-118,40,-118,116v0,201,337,81,337,342v0,165,-121,212,-222,212v-167,0,-216,-86,-216,-238r88,0v0,80,5,166,134,166v70,0,124,-50,124,-126v0,-202,-337,-85,-337,-347v0,-66,28,-197,209,-197v136,0,198,68,200,199","w":500},"T":{"d":"275,-636r0,636r-88,0r0,-636r-179,0r0,-78r447,0r0,78r-180,0","w":463},"U":{"d":"50,-212r0,-502r88,0r0,502v0,105,34,154,121,154v94,0,122,-54,122,-154r0,-502r88,0r0,502v0,137,-70,226,-210,226v-143,0,-209,-79,-209,-226","w":519},"V":{"d":"172,0r-174,-714r92,0r140,613r2,0r140,-613r92,0r-180,714r-112,0","w":462},"W":{"d":"150,0r-142,-714r88,0r109,584r2,0r101,-584r106,0r101,584r2,0r109,-584r88,0r-147,714r-107,0r-98,-578r-2,0r-103,578r-107,0","w":722},"X":{"d":"192,-363r-176,-351r98,0r130,267r131,-267r92,0r-178,351r190,363r-98,0r-142,-286r-145,286r-92,0","w":481},"Y":{"d":"187,-280r-189,-434r97,0r136,334r141,-334r92,0r-189,434r0,280r-88,0r0,-280","w":462},"Z":{"d":"23,0r0,-74r321,-562r-303,0r0,-78r395,0r0,81r-321,555r325,0r0,78r-417,0","w":463},"[":{"d":"78,184r0,-898r179,0r0,66r-101,0r0,766r101,0r0,66r-179,0","w":259},"\\":{"d":"222,14r-232,-742r66,0r232,742r-66,0","w":278},"]":{"d":"181,-714r0,898r-179,0r0,-66r101,0r0,-766r-101,0r0,-66r179,0","w":259},"^":{"d":"47,-261r229,-433r48,0r229,433r-66,0r-187,-361r-187,361r-66,0","w":600},"_":{"d":"0,125r0,-50r500,0r0,50r-500,0","w":500},"\u2018":{"d":"166,-566r0,106r-92,0v4,-119,-22,-221,92,-254r0,47v-42,19,-45,48,-44,101r44,0","w":240},"a":{"d":"126,-374r-84,0v0,-122,52,-176,180,-176v163,0,163,98,163,154r0,299v0,22,0,43,26,43v11,0,16,-2,20,-5r0,60v-54,7,-117,22,-127,-64v-27,48,-79,77,-129,77v-100,0,-146,-60,-146,-156v0,-75,32,-127,101,-148r113,-34v61,-19,61,-36,61,-81v0,-50,-30,-79,-86,-79v-94,0,-92,83,-92,110xm301,-292v-56,56,-184,29,-184,148v0,54,19,92,76,92v55,0,108,-47,108,-102r0,-138","w":444},"b":{"d":"134,-268v0,110,18,210,108,210v78,0,98,-88,98,-210v0,-128,-20,-210,-98,-210v-90,0,-108,106,-108,210xm55,0r0,-714r84,0r0,239r2,0v19,-46,70,-75,124,-75v145,0,163,170,163,282v0,151,-51,282,-175,282v-60,0,-102,-43,-118,-80r0,66r-80,0","w":463},"c":{"d":"394,-373r-84,0v0,-52,-21,-111,-85,-111v-52,0,-105,26,-105,222v0,70,1,210,102,210v72,0,88,-76,88,-134r84,0v0,85,-42,200,-176,200v-131,0,-186,-91,-186,-275v0,-134,26,-289,191,-289v146,0,171,115,171,177","w":426},"d":{"d":"123,-268v0,128,20,210,98,210v93,0,108,-88,108,-210v0,-104,-18,-210,-108,-210v-78,0,-98,82,-98,210xm408,-714r0,714r-80,0v-2,-21,4,-49,-2,-66v-11,40,-58,80,-116,80v-127,0,-175,-113,-175,-282v0,-112,18,-282,169,-282v50,0,97,33,120,75r0,-239r84,0","w":463},"e":{"d":"128,-324r191,0v3,-78,-9,-160,-93,-160v-96,0,-99,106,-98,160xm407,-258r-282,0v0,82,0,206,103,206v80,0,91,-84,91,-124r84,0v0,57,-34,190,-180,190v-131,0,-186,-91,-186,-275v0,-134,26,-289,191,-289v177,0,180,154,179,292","w":444},"f":{"d":"80,0r0,-470r-78,0r0,-66r78,0v-6,-108,10,-191,116,-186r61,0r0,72v-51,-2,-93,-2,-93,51r0,63r92,0r0,66r-92,0r0,470r-84,0","w":259},"g":{"d":"221,-478v-78,0,-98,82,-98,210v0,87,13,196,97,196v91,0,109,-86,109,-196v0,-104,-18,-210,-108,-210xm408,-536r0,502v0,160,-74,218,-182,218v-33,0,-162,0,-176,-134r84,0v4,49,42,68,86,68v108,0,104,-83,104,-120v0,-22,4,-52,-2,-70v-18,45,-68,72,-121,72v-156,0,-166,-197,-166,-268v0,-145,39,-282,175,-282v60,0,102,44,118,82r0,-68r80,0","w":463},"h":{"d":"55,0r0,-714r84,0r0,239r2,0v22,-44,81,-75,129,-75v138,0,138,107,138,170r0,380r-84,0r0,-370v0,-41,-3,-108,-79,-108v-45,0,-106,30,-106,108r0,370r-84,0","w":463},"i":{"d":"60,0r0,-536r84,0r0,536r-84,0xm60,-618r0,-96r84,0r0,96r-84,0"},"j":{"d":"144,-536r0,588v5,103,-62,144,-167,129r0,-72v10,1,21,3,31,3v52,0,52,-40,52,-90r0,-558r84,0xm144,-714r0,96r-84,0r0,-96r84,0"},"k":{"d":"264,-334r191,334r-98,0r-149,-265r-69,84r0,181r-84,0r0,-714r84,0r0,425r2,0r188,-247r98,0","w":444},"l":{"d":"60,0r0,-714r84,0r0,714r-84,0"},"m":{"d":"63,0r0,-536r80,0v2,20,-4,47,2,63v22,-49,78,-77,130,-77v62,0,99,24,116,85v24,-47,72,-85,127,-85v141,0,141,107,141,170r0,380r-84,0r0,-370v0,-41,-3,-108,-72,-108v-39,0,-100,24,-100,108r0,370r-84,0r0,-370v0,-41,-3,-108,-72,-108v-39,0,-100,24,-100,108r0,370r-84,0","w":722},"n":{"d":"55,0r0,-536r80,0v2,20,-4,47,2,63v22,-49,78,-77,130,-77v141,0,141,107,141,170r0,380r-84,0r0,-370v0,-41,-3,-108,-79,-108v-45,0,-106,30,-106,108r0,370r-84,0","w":463},"o":{"d":"29,-268v0,-151,39,-282,193,-282v155,0,193,131,193,282v0,151,-39,282,-193,282v-155,0,-193,-131,-193,-282xm220,-52v89,0,107,-100,107,-216v0,-116,-17,-216,-107,-216v-85,0,-103,100,-103,216v0,116,17,216,103,216","w":444},"p":{"d":"134,-268v0,104,18,210,108,210v78,0,98,-82,98,-220v0,-118,-20,-200,-98,-200v-93,0,-108,88,-108,210xm55,176r0,-712r80,0v2,21,-4,49,2,66v11,-40,58,-80,116,-80v127,0,175,113,175,272v0,122,-36,292,-175,292v-50,0,-91,-33,-114,-75r0,237r-84,0","w":463},"q":{"d":"329,-268v0,-122,-15,-210,-108,-210v-78,0,-98,82,-98,200v0,138,20,220,98,220v90,0,108,-106,108,-210xm324,176r0,-237r-2,0v-19,46,-64,75,-112,75v-139,0,-175,-146,-175,-292v0,-159,48,-272,175,-272v60,0,102,43,118,80r0,-66r80,0r0,712r-84,0","w":463},"r":{"d":"55,0r0,-536r84,0v2,25,-4,59,2,80v26,-61,75,-112,153,-88r0,82v-75,-16,-155,15,-155,123r0,339r-84,0","w":296},"s":{"d":"369,-379r-84,0v0,-68,-18,-105,-79,-105v-27,0,-87,7,-87,82v0,63,66,75,132,97v65,22,131,45,131,151v0,113,-73,168,-173,168v-182,0,-184,-135,-184,-190r84,0v0,65,18,124,100,124v27,0,89,-13,89,-89v0,-72,-66,-87,-131,-109v-65,-22,-132,-41,-132,-152v0,-100,78,-148,171,-148v156,0,162,108,163,171","w":407},"t":{"d":"80,-536r0,-156r84,0r0,156r93,0r0,66r-93,0r0,344v-10,59,44,65,92,57r0,69v-11,2,-33,6,-68,6v-87,0,-108,-36,-108,-106r0,-370r-78,0r0,-66r78,0","w":259},"u":{"d":"408,-536r0,536r-80,0v-2,-20,4,-47,-2,-63v-22,49,-78,77,-130,77v-141,0,-141,-107,-141,-170r0,-380r84,0r0,370v0,41,3,108,79,108v45,0,106,-30,106,-108r0,-370r84,0","w":463},"v":{"d":"155,0r-145,-536r92,0r100,430r2,0r100,-430r92,0r-145,536r-96,0","w":406},"w":{"d":"135,0r-125,-536r88,0r86,438r2,0r91,-438r99,0r89,438r2,0r83,-438r88,0r-127,536r-92,0r-94,-438r-2,0r-90,438r-98,0","w":648},"x":{"d":"153,-279r-137,-257r92,0r97,191r98,-191r92,0r-140,257r145,279r-92,0r-107,-212r-103,212r-92,0","w":406},"y":{"d":"168,11r-158,-547r92,0r106,430r2,0r94,-430r92,0r-155,572v-20,74,-42,140,-143,140v-33,0,-47,-2,-61,-3r0,-66v12,2,28,3,49,3v61,0,65,-55,82,-99","w":406},"z":{"d":"39,-464r0,-72r323,0r0,70r-240,394r238,0r0,72r-333,0r0,-66r243,-398r-231,0","w":389},"{":{"d":"2,-235r0,-60v44,0,76,-41,76,-111r0,-178v5,-132,70,-134,179,-130r0,66r-51,0v-49,0,-50,45,-50,82r0,172v1,100,-69,121,-88,130v22,3,88,31,88,128r0,172v0,37,1,82,50,82r51,0r0,66v-109,4,-179,2,-179,-130r0,-178v0,-70,-32,-111,-76,-111","w":259},"|":{"d":"78,14r0,-742r66,0r0,742r-66,0","w":222},"}":{"d":"257,-295r0,60v-44,0,-76,41,-76,111r0,178v-5,132,-70,134,-179,130r0,-66r51,0v49,0,50,-45,50,-82r0,-172v-1,-100,69,-121,88,-130v-22,-3,-88,-31,-88,-128r0,-172v0,-37,-1,-82,-50,-82r-51,0r0,-66v109,-4,179,-2,179,130r0,178v0,70,32,111,76,111","w":259},"~":{"d":"408,-182v-70,0,-146,-76,-211,-76v-46,0,-81,46,-99,73r-42,-46v30,-42,71,-93,136,-93v70,0,146,76,211,76v46,0,81,-46,99,-73r42,45v-30,43,-71,94,-136,94","w":600},"\u00a1":{"d":"159,-352r16,528r-92,0r16,-528r60,0xm175,-538r0,96r-92,0r0,-96r92,0","w":258},"\u00a2":{"d":"227,-52r0,-432v-43,10,-80,56,-80,222v0,68,1,192,80,210xm227,99r0,-85v-118,-7,-168,-98,-168,-275v0,-128,23,-275,168,-289r0,-70r42,0r0,70v129,8,152,116,152,177r-84,0v0,-49,-17,-102,-68,-111r0,432v55,-13,68,-79,68,-134r84,0v0,82,-37,188,-152,200r0,85r-42,0","w":480},"\u00a3":{"d":"191,-93v53,0,71,30,126,29v33,0,52,-8,107,-39r37,67v-41,29,-88,50,-138,50v-84,-1,-141,-66,-219,-30r-47,22r-38,-65v78,-56,165,-153,103,-263r-95,0r0,-60r70,0v-22,-40,-49,-96,-49,-146v0,-115,89,-180,201,-180v117,0,198,64,198,203r-84,0v0,-74,-29,-137,-114,-137v-86,0,-113,59,-113,105v0,44,30,104,56,155r164,0r0,60r-142,0v54,110,-34,194,-110,255r2,2v26,-13,57,-28,85,-28","w":480},"\u2044":{"d":"-164,31r435,-756r60,0r-435,756r-60,0","w":167},"\u00a5":{"d":"200,0r0,-153r-147,0r0,-60r147,0v0,-30,3,-65,-10,-82r-137,0r0,-60r110,0r-154,-339r97,0r136,324r141,-324r88,0r-150,339r110,0r0,60r-137,0v-13,17,-10,51,-10,82r147,0r0,60r-147,0r0,153r-84,0","w":480},"\u0192":{"d":"-17,172r14,-66v69,10,110,5,128,-86r79,-400r-104,0r11,-60r104,0r33,-156v20,-105,106,-128,214,-114r-14,66v-91,-18,-123,27,-134,126r-15,78r109,0r-11,60r-109,0r-80,411v-19,114,-98,161,-225,141","w":480},"\u00a7":{"d":"413,-578r-88,0v0,-54,-40,-84,-88,-84v-59,0,-85,42,-85,75v0,84,119,113,180,155v63,43,120,80,120,160v0,65,-41,114,-89,147v41,26,58,76,58,124v0,101,-83,155,-174,155v-149,0,-183,-107,-183,-174r84,0v0,61,32,108,99,108v73,0,86,-58,86,-85v0,-96,-129,-130,-196,-177v-53,-37,-107,-83,-107,-146v0,-73,41,-106,98,-142v-39,-25,-64,-74,-64,-120v0,-97,86,-146,173,-146v162,0,172,110,176,150xm114,-331v0,67,89,96,136,128r60,41v20,-12,58,-41,58,-95v0,-92,-125,-122,-187,-170v-27,20,-67,48,-67,96","w":482},"\u00a4":{"d":"92,-347v0,87,66,154,148,154v82,0,148,-67,148,-154v0,-87,-66,-154,-148,-154v-82,0,-148,67,-148,154xm18,-167r47,-47v-59,-72,-59,-194,0,-265r-47,-47r43,-43r47,47v72,-60,193,-59,264,0r47,-47r43,43r-47,47v60,72,59,194,-1,264r48,48r-42,42r-48,-48v-70,61,-193,60,-265,1r-47,47","w":480},"'":{"d":"87,-460r0,-254r66,0r0,254r-66,0","w":240},"\u201c":{"d":"328,-566r0,106r-92,0v4,-119,-22,-221,92,-254r0,47v-42,19,-45,48,-44,101r44,0xm171,-566r0,106r-92,0v4,-119,-22,-221,92,-254r0,47v-42,19,-45,48,-44,101r44,0","w":407},"\u00ab":{"d":"198,-245r0,-78r142,-143r0,88r-94,94r94,94r0,88xm49,-245r0,-78r142,-143r0,88r-94,94r94,94r0,88","w":389},"\u2039":{"d":"49,-245r0,-78r142,-143r0,88r-94,94r94,94r0,88","w":240},"\u203a":{"d":"191,-323r0,78r-142,143r0,-88r94,-94r-94,-94r0,-88","w":240},"\ufb01":{"d":"80,0r0,-470r-78,0r0,-66r78,0v-6,-108,10,-191,116,-186r61,0r0,72v-51,-2,-93,-2,-93,51r0,63r92,0r0,66r-92,0r0,470r-84,0xm319,0r0,-536r84,0r0,536r-84,0xm319,-618r0,-96r84,0r0,96r-84,0","w":463},"\ufb02":{"d":"80,0r0,-470r-78,0r0,-66r78,0v-6,-108,10,-191,116,-186r61,0r0,72v-51,-2,-93,-2,-93,51r0,63r92,0r0,66r-92,0r0,470r-84,0xm319,0r0,-714r84,0r0,714r-84,0","w":463},"\u2013":{"d":"0,-248r0,-72r500,0r0,72r-500,0","w":500},"\u2020":{"d":"199,-508r0,-206r84,0r0,206r172,0r0,72r-172,0r0,576r-84,0r0,-576r-172,0r0,-72r172,0","w":482},"\u2021":{"d":"199,-521r0,-193r84,0r0,193r172,0r0,72r-172,0r0,317r172,0r0,72r-172,0r0,200r-84,0r0,-200r-172,0r0,-72r172,0r0,-317r-172,0r0,-72r172,0","w":482},"\u00b7":{"d":"64,-327v0,-31,25,-56,56,-56v31,0,56,25,56,56v0,31,-25,56,-56,56v-31,0,-56,-25,-56,-56","w":240},"\u00b6":{"d":"411,140r0,-800r-100,0r0,800r-66,0r0,-462v-122,0,-209,-82,-209,-186v0,-130,96,-206,236,-206r205,0r0,854r-66,0","w":556},"\u2022":{"d":"72,-357v0,-98,80,-178,178,-178v98,0,178,80,178,178v0,98,-80,178,-178,178v-98,0,-178,-80,-178,-178","w":500},"\u201a":{"d":"74,0r0,-106r92,0v-4,119,22,221,-92,254r0,-47v42,-19,45,-48,44,-101r-44,0","w":240},"\u201e":{"d":"328,-106v-4,119,22,221,-92,254r0,-47v42,-19,45,-48,44,-101r-44,0r0,-106r92,0xm171,-106v-4,119,22,221,-92,254r0,-47v42,-19,45,-48,44,-101r-44,0r0,-106r92,0","w":407},"\u201d":{"d":"328,-714v-4,119,22,221,-92,254r0,-47v42,-19,45,-48,44,-101r-44,0r0,-106r92,0xm171,-714v-4,119,22,221,-92,254r0,-47v42,-19,45,-48,44,-101r-44,0r0,-106r92,0","w":407},"\u00bb":{"d":"340,-323r0,78r-142,143r0,-88r94,-94r-94,-94r0,-88xm191,-323r0,78r-142,143r0,-88r94,-94r-94,-94r0,-88","w":389},"\u2026":{"d":"121,0r0,-106r92,0r0,106r-92,0xm454,0r0,-106r92,0r0,106r-92,0xm787,0r0,-106r92,0r0,106r-92,0","w":1000},"\u2030":{"d":"860,-40v56,0,59,-56,59,-138v0,-82,-3,-138,-59,-138v-56,0,-59,56,-59,138v0,82,3,138,59,138xm169,14r310,-722r70,0r-310,722r-70,0xm177,-378v56,0,59,-56,59,-138v0,-82,-3,-138,-59,-138v-56,0,-59,56,-59,138v0,82,3,138,59,138xm860,14v-119,0,-131,-92,-131,-192v0,-100,12,-192,131,-192v119,0,131,92,131,192v0,100,-12,192,-131,192xm177,-324v-119,0,-131,-92,-131,-192v0,-100,12,-192,131,-192v119,0,131,92,131,192v0,100,-12,192,-131,192xm551,-40v56,0,59,-56,59,-138v0,-82,-3,-138,-59,-138v-56,0,-59,56,-59,138v0,82,3,138,59,138xm551,14v-119,0,-131,-92,-131,-192v0,-100,12,-192,131,-192v119,0,131,92,131,192v0,100,-12,192,-131,192","w":1037},"\u00bf":{"d":"325,-34r84,0v0,118,-57,218,-186,218v-183,0,-238,-209,-138,-329v41,-50,125,-113,110,-207r78,0v0,40,0,87,-19,123v-23,43,-77,98,-101,128v-53,67,-40,213,67,213v97,0,105,-97,105,-146xm279,-538r0,96r-92,0r0,-96r92,0","w":444},"`":{"d":"-16,-752r98,0r70,142r-60,0"},"\u00b4":{"d":"52,-610r70,-142r98,0r-108,142r-60,0"},"\u02c6":{"d":"-37,-610r101,-142r77,0r100,142r-78,0r-61,-88r-61,88r-78,0"},"\u02dc":{"d":"48,-733v35,0,82,38,112,38v26,0,31,-27,35,-45r54,0v0,50,-29,111,-86,111v-42,0,-94,-38,-115,-38v-26,0,-36,27,-39,45r-54,0v0,-59,40,-111,93,-111"},"\u00af":{"d":"-30,-655r0,-54r264,0r0,54r-264,0"},"\u02d8":{"d":"-23,-745r48,0v0,37,41,67,77,67v36,0,77,-30,77,-67r48,0v0,41,-24,127,-125,127v-101,0,-125,-86,-125,-127"},"\u02d9":{"d":"63,-634r0,-101r78,0r0,101r-78,0"},"\u00a8":{"d":"-18,-634r0,-101r78,0r0,101r-78,0xm144,-634r0,-101r78,0r0,101r-78,0"},"\u02da":{"d":"3,-690v0,-55,44,-99,99,-99v55,0,99,44,99,99v0,55,-44,99,-99,99v-55,0,-99,-44,-99,-99xm45,-690v0,31,26,57,57,57v31,0,57,-26,57,-57v0,-31,-26,-57,-57,-57v-31,0,-57,26,-57,57"},"\u00b8":{"d":"-1,192r15,-34v3,1,48,12,64,12v76,4,67,-80,8,-78v-21,0,-34,4,-38,7r-15,-18r59,-87r42,0r-41,60v5,4,24,-6,32,-4v34,0,80,21,80,76v0,89,-139,104,-206,66"},"\u02dd":{"d":"-50,-610r70,-142r98,0r-108,142r-60,0xm114,-610r70,-142r98,0r-108,142r-60,0"},"\u02db":{"d":"127,-6r53,0v-87,63,-104,96,-104,130v-2,63,72,49,106,25r18,35v-64,48,-196,38,-196,-50v0,-53,42,-102,123,-140"},"\u02c7":{"d":"241,-752r-101,142r-77,0r-100,-142r78,0r61,88r61,-88r78,0"},"\u2014":{"d":"0,-248r0,-72r1000,0r0,72r-1000,0","w":1000},"\u00c6":{"d":"322,-642r-140,374r150,0r0,-374r-10,0xm-8,0r276,-714r418,0r0,78r-266,0r0,224r250,0r0,78r-250,0r0,256r278,0r0,78r-366,0r0,-196r-175,0r-73,196r-92,0","w":722},"\u00aa":{"d":"251,-612r0,176v-5,19,14,34,30,24r0,42v-32,6,-92,7,-88,-43r-2,0v-16,29,-50,46,-88,46v-62,0,-95,-39,-95,-93v0,-48,21,-78,72,-92r73,-20v38,-11,38,-22,38,-45v0,-30,-20,-43,-54,-43v-61,0,-59,45,-59,62r-60,0v0,-78,34,-110,127,-110v106,0,106,62,106,96xm191,-547v-34,32,-119,16,-117,83v0,26,12,49,46,49v36,0,71,-28,71,-55r0,-77","w":289},"\u0141":{"d":"-8,-197r0,-72r66,-47r0,-398r88,0r0,335r194,-139r0,72r-194,139r0,229r290,0r0,78r-378,0r0,-244","w":444},"\u00d8":{"d":"161,-153r197,-473v-19,-19,-45,-30,-80,-30v-122,0,-138,134,-138,299v0,79,4,150,21,204xm395,-562r-196,474v19,19,45,30,79,30v122,0,138,-134,138,-299v0,-80,-4,-152,-21,-205xm88,24r33,-80v-60,-71,-73,-188,-73,-301v0,-180,33,-371,230,-371v46,0,82,10,111,28r24,-59r54,22r-32,77v60,71,73,189,73,303v0,180,-33,371,-230,371v-45,0,-81,-10,-110,-28r-26,62","w":556},"\u0152":{"d":"500,-334r0,256r272,0r0,78r-358,0v-2,-20,4,-47,-2,-63v-18,48,-74,77,-134,77v-197,0,-230,-178,-230,-371v0,-180,33,-371,230,-371v53,0,113,26,140,69r0,-55r342,0r0,78r-260,0r0,224r244,0r0,78r-244,0xm412,-232r0,-231v0,-101,-4,-193,-134,-193v-126,0,-142,134,-142,299v0,165,16,299,142,299v114,0,134,-80,134,-174","w":796},"\u00ba":{"d":"143,-708v105,0,130,82,130,169v0,90,-26,172,-130,172v-102,0,-127,-82,-127,-172v0,-87,25,-169,127,-169xm143,-415v52,0,64,-64,64,-124v0,-58,-11,-121,-64,-121v-49,0,-61,63,-61,121v0,60,11,124,61,124","w":289},"\u00e6":{"d":"371,-324r182,0v3,-77,-9,-160,-89,-160v-91,0,-94,107,-93,160xm553,-176r84,0v0,57,-34,190,-169,190v-115,1,-137,-80,-146,-98v-26,57,-70,98,-149,98v-89,0,-147,-60,-147,-156v0,-75,37,-128,102,-148r125,-38v32,-10,37,-32,37,-77v0,-50,-24,-79,-80,-79v-88,0,-86,83,-86,110r-84,0v0,-122,55,-176,176,-176v73,0,113,33,130,74v18,-45,75,-74,126,-74v166,0,170,156,169,292r-273,0v0,82,0,206,94,206v80,0,91,-84,91,-124xm290,-174v0,-34,4,-75,-2,-105v-7,14,-111,42,-130,49v-28,10,-44,34,-44,85v0,49,22,93,75,93v96,0,101,-96,101,-122","w":667},"\u0131":{"d":"60,0r0,-536r84,0r0,536r-84,0"},"\u0142":{"d":"60,0r0,-276r-60,64r0,-78r60,-64r0,-360r84,0r0,271r60,-63r0,78r-60,63r0,365r-84,0"},"\u00f8":{"d":"310,-407r-143,336v13,12,31,19,53,19v128,0,119,-240,90,-355xm134,-126r143,-337v-16,-14,-34,-21,-57,-21v-123,-5,-115,244,-86,358xm64,40r32,-76v-51,-50,-67,-133,-67,-232v0,-151,39,-282,193,-282v33,0,61,6,84,18r26,-61r48,21r-30,71v50,55,65,136,65,233v0,151,-39,282,-193,282v-33,0,-61,-6,-84,-18r-27,63","w":444},"\u0153":{"d":"514,-550v166,0,170,156,169,292r-273,0v0,82,0,206,94,206v80,0,91,-84,91,-124r84,0v0,57,-34,190,-169,190v-113,0,-139,-83,-142,-92v-25,57,-78,92,-141,92v-150,0,-188,-137,-188,-282v0,-145,39,-282,188,-282v74,0,114,29,147,91v25,-56,81,-91,140,-91xm332,-268v0,-110,-17,-216,-105,-216v-82,0,-100,106,-100,216v0,110,17,216,100,216v87,0,105,-106,105,-216xm506,-484v-91,0,-94,107,-93,160r182,0v3,-77,-9,-160,-89,-160","w":722},"\u00df":{"d":"48,0r0,-511v0,-124,37,-211,177,-211v95,0,172,50,172,163v0,66,-38,131,-106,149v95,0,143,86,143,186v0,107,-52,224,-179,224r-59,0r0,-72r58,0v75,0,92,-95,92,-152v0,-106,-50,-166,-147,-147r0,-69v69,5,114,-28,114,-105v0,-50,-17,-111,-88,-111v-87,0,-93,66,-93,131r0,525r-84,0","w":463},"\u00f7":{"d":"47,-220r0,-66r506,0r0,66r-506,0xm244,-464v0,-31,25,-56,56,-56v31,0,56,25,56,56v0,31,-25,56,-56,56v-31,0,-56,-25,-56,-56xm244,-42v0,-31,25,-56,56,-56v31,0,56,25,56,56v0,31,-25,56,-56,56v-31,0,-56,-25,-56,-56","w":600},"\u00be":{"d":"476,-153r112,0r0,-185r-2,0xm422,-159r160,-269r72,0r0,275r47,0r0,54r-47,0r0,99r-66,0r0,-99r-166,0r0,-60xm145,31r434,-756r60,0r-434,756r-60,0xm120,-474r0,-54v59,6,96,-21,96,-69v0,-30,-18,-57,-55,-57v-56,0,-62,46,-62,69r-72,0v0,-73,37,-123,136,-123v103,0,125,63,125,111v0,45,-34,78,-84,94v57,9,96,39,96,99v0,78,-43,131,-136,131v-136,0,-144,-95,-144,-123r72,0v0,31,20,69,70,69v27,0,66,-16,66,-73v0,-55,-42,-80,-108,-74","w":721},"\u00bc":{"d":"454,-153r112,0r0,-185r-2,0xm400,-159r160,-269r72,0r0,275r47,0r0,54r-47,0r0,99r-66,0r0,-99r-166,0r0,-60xm93,31r434,-756r60,0r-434,756r-60,0xm32,-593r0,-48v57,0,111,-7,113,-67r49,0r0,428r-66,0r0,-313r-96,0","w":721},"\u00b9":{"d":"128,-280r0,-313r-96,0r0,-48v57,0,111,-7,113,-67r49,0r0,428r-66,0","w":312},"\u00d7":{"d":"480,-30r-180,-180r-181,180r-42,-42r181,-181r-181,-181r42,-42r181,180r180,-180r43,42r-181,181r181,181","w":600},"\u00ae":{"d":"252,-138r0,-434r168,0v96,0,148,41,148,127v0,77,-51,113,-117,120r124,187r-66,0r-120,-182r-71,0r0,182r-66,0xm318,-380v82,-4,184,21,184,-68v0,-88,-104,-58,-184,-64r0,132xm29,-357v0,-205,166,-371,371,-371v205,0,371,166,371,371v0,205,-166,371,-371,371v-205,0,-371,-166,-371,-371xm400,-46v169,0,305,-139,305,-311v0,-172,-136,-311,-305,-311v-169,0,-305,139,-305,311v0,172,136,311,305,311","w":800},"\u00de":{"d":"58,0r0,-714r88,0r0,140r94,0v62,0,221,0,221,205v0,133,-85,207,-206,207r-109,0r0,162r-88,0xm146,-502r0,268r105,0v64,0,118,-44,118,-139v0,-78,-37,-129,-124,-129r-99,0","w":481},"\u00a6":{"d":"78,14r0,-294r66,0r0,294r-66,0xm78,-434r0,-294r66,0r0,294r-66,0","w":222},"\u00d0":{"d":"67,0r0,-340r-58,0r0,-66r58,0r0,-308r191,0v222,0,250,160,250,357v0,180,-45,357,-241,357r-200,0xm155,-72r92,0v152,0,169,-156,169,-284v0,-138,-9,-286,-169,-286r-92,0r0,236r134,0r0,66r-134,0r0,268","w":556},"\u00bd":{"d":"74,31r434,-756r60,0r-434,756r-60,0xm30,-593r0,-48v57,0,111,-7,113,-67r49,0r0,428r-66,0r0,-313r-96,0xm681,0r-261,0v0,-100,76,-156,137,-205v38,-30,62,-56,62,-103v0,-35,-18,-60,-66,-60v-57,0,-62,51,-62,76r-72,0v0,-77,35,-136,139,-136v77,0,133,38,133,114v0,128,-154,159,-190,254r180,0r0,60","w":721},"\u2212":{"d":"47,-220r0,-66r506,0r0,66r-506,0","w":600},"\u00e7":{"d":"151,81r47,-67v-117,-10,-166,-101,-166,-275v0,-134,26,-289,191,-289v146,0,171,115,171,177r-84,0v0,-52,-21,-111,-85,-111v-52,0,-105,26,-105,222v0,70,1,210,102,210v72,0,88,-76,88,-134r84,0v0,80,-37,186,-154,199r-29,41v5,4,24,-6,32,-4v34,0,80,21,80,76v0,89,-139,104,-206,66r15,-34v3,1,48,12,64,12v76,4,67,-80,8,-78v-21,0,-34,4,-38,7","w":426},"\u00f0":{"d":"220,-470v-85,0,-103,106,-103,202v0,116,17,216,103,216v89,0,107,-100,107,-216v0,-96,-17,-202,-107,-202xm120,-595r-38,-42r71,-40v-23,-23,-49,-45,-77,-67r64,-28v26,21,50,41,72,61r74,-42r38,42r-70,40v102,102,161,215,161,403v0,151,-39,282,-193,282v-155,0,-193,-131,-193,-282v0,-145,39,-268,193,-268v19,-1,40,7,61,17v-27,-41,-56,-80,-90,-117","w":444},"\u00b1":{"d":"47,-295r0,-66r220,0r0,-145r66,0r0,145r220,0r0,66r-220,0r0,145r-66,0r0,-145r-220,0xm47,0r0,-66r506,0r0,66r-506,0","w":600},"\u00c7":{"d":"198,81r46,-69v-172,-21,-196,-200,-196,-369v0,-180,33,-371,230,-371v146,0,207,82,211,222r-92,0v-2,-81,-28,-150,-119,-150v-122,0,-138,134,-138,299v0,165,16,299,138,299v107,0,122,-100,125,-187r92,0v-8,133,-60,256,-210,259r-27,40v5,4,24,-6,32,-4v34,0,80,21,80,76v0,89,-139,104,-206,66r15,-34v3,1,48,12,64,12v76,4,67,-80,8,-78v-21,0,-34,4,-38,7","w":519},"\u00fe":{"d":"134,-268v0,104,18,210,108,210v78,0,98,-82,98,-220v0,-118,-20,-200,-98,-200v-93,0,-108,88,-108,210xm55,176r0,-890r84,0r0,239r2,0v13,-46,67,-75,112,-75v127,0,175,113,175,272v0,122,-36,292,-175,292v-50,0,-91,-33,-114,-75r0,237r-84,0","w":463},"\u00a9":{"d":"543,-279r60,0v-14,102,-98,155,-197,155v-136,0,-219,-95,-219,-230v0,-135,83,-230,219,-230v99,0,183,51,197,155r-60,0v-11,-53,-63,-95,-137,-95v-94,0,-153,76,-153,170v0,94,59,170,153,170v74,0,126,-42,137,-95xm29,-357v0,-205,166,-371,371,-371v205,0,371,166,371,371v0,205,-166,371,-371,371v-205,0,-371,-166,-371,-371xm400,-46v169,0,305,-139,305,-311v0,-172,-136,-311,-305,-311v-169,0,-305,139,-305,311v0,172,136,311,305,311","w":800},"\u00ac":{"d":"487,-106r0,-216r-440,0r0,-66r506,0r0,282r-66,0","w":600},"\u00b2":{"d":"282,-280r-261,0v0,-100,76,-156,137,-205v38,-30,62,-56,62,-103v0,-35,-18,-60,-66,-60v-57,0,-62,51,-62,76r-72,0v0,-77,35,-136,139,-136v77,0,133,38,133,114v0,128,-154,159,-190,254r180,0r0,60","w":312},"\u00b3":{"d":"116,-474r0,-54v59,6,96,-21,96,-69v0,-30,-18,-57,-55,-57v-56,0,-62,46,-62,69r-72,0v0,-73,37,-123,136,-123v103,0,125,63,125,111v0,45,-34,78,-84,94v57,9,96,39,96,99v0,78,-43,131,-136,131v-136,0,-144,-95,-144,-123r72,0v0,31,20,69,70,69v27,0,66,-16,66,-73v0,-55,-42,-80,-108,-74","w":312},"\u2122":{"d":"185,-302r0,-352r-133,0r0,-60r329,0r0,60r-130,0r0,352r-66,0xm848,-302r0,-340r-2,0r-139,340r-39,0r-139,-340r-2,0r0,340r-66,0r0,-412r98,0r130,316r127,-316r98,0r0,412r-66,0","w":990},"\u00b0":{"d":"51,-559v0,-86,63,-149,149,-149v86,0,149,63,149,149v0,86,-63,149,-149,149v-86,0,-149,-63,-149,-149xm105,-559v0,52,43,95,95,95v52,0,95,-43,95,-95v0,-52,-43,-95,-95,-95v-52,0,-95,43,-95,95","w":400},"\u00b5":{"d":"408,-536r0,536r-80,0v-2,-20,4,-47,-2,-63v-29,64,-119,98,-187,63r0,176r-84,0r0,-712r84,0r0,370v0,41,3,108,79,108v45,0,106,-30,106,-108r0,-370r84,0","w":463},"\u00c1":{"d":"-8,0r206,-714r118,0r192,714r-92,0r-51,-196r-228,0r-53,196r-92,0xm254,-613r-99,345r192,0r-91,-345r-2,0xm207,-753r70,-142r98,0r-108,142r-60,0","w":500},"\u00c2":{"d":"-8,0r206,-714r118,0r192,714r-92,0r-51,-196r-228,0r-53,196r-92,0xm254,-613r-99,345r192,0r-91,-345r-2,0xm118,-753r101,-142r77,0r100,142r-78,0r-61,-88r-61,88r-78,0","w":500},"\u00c4":{"d":"-8,0r206,-714r118,0r192,714r-92,0r-51,-196r-228,0r-53,196r-92,0xm254,-613r-99,345r192,0r-91,-345r-2,0xm137,-777r0,-101r78,0r0,101r-78,0xm299,-777r0,-101r78,0r0,101r-78,0","w":500},"\u00c0":{"d":"-8,0r206,-714r118,0r192,714r-92,0r-51,-196r-228,0r-53,196r-92,0xm254,-613r-99,345r192,0r-91,-345r-2,0xm139,-895r98,0r70,142r-60,0","w":500},"\u00c5":{"d":"-8,0r206,-714r118,0r192,714r-92,0r-51,-196r-228,0r-53,196r-92,0xm254,-613r-99,345r192,0r-91,-345r-2,0xm158,-833v0,-55,44,-99,99,-99v55,0,99,44,99,99v0,55,-44,99,-99,99v-55,0,-99,-44,-99,-99xm200,-833v0,31,26,57,57,57v31,0,57,-26,57,-57v0,-31,-26,-57,-57,-57v-31,0,-57,26,-57,57","w":500},"\u00c3":{"d":"-8,0r206,-714r118,0r192,714r-92,0r-51,-196r-228,0r-53,196r-92,0xm254,-613r-99,345r192,0r-91,-345r-2,0xm203,-876v35,0,82,38,112,38v26,0,31,-27,35,-45r54,0v0,50,-29,111,-86,111v-42,0,-94,-38,-115,-38v-26,0,-36,27,-39,45r-54,0v0,-59,40,-111,93,-111","w":500},"\u00c9":{"d":"58,0r0,-714r369,0r0,78r-281,0r0,224r265,0r0,78r-265,0r0,256r293,0r0,78r-381,0xm194,-753r70,-142r98,0r-108,142r-60,0","w":463},"\u00ca":{"d":"58,0r0,-714r369,0r0,78r-281,0r0,224r265,0r0,78r-265,0r0,256r293,0r0,78r-381,0xm105,-753r101,-142r77,0r100,142r-78,0r-61,-88r-61,88r-78,0","w":463},"\u00cb":{"d":"58,0r0,-714r369,0r0,78r-281,0r0,224r265,0r0,78r-265,0r0,256r293,0r0,78r-381,0xm124,-777r0,-101r78,0r0,101r-78,0xm286,-777r0,-101r78,0r0,101r-78,0","w":463},"\u00c8":{"d":"58,0r0,-714r369,0r0,78r-281,0r0,224r265,0r0,78r-265,0r0,256r293,0r0,78r-381,0xm126,-895r98,0r70,142r-60,0","w":463},"\u00cd":{"d":"58,0r0,-714r88,0r0,714r-88,0xm52,-753r70,-142r98,0r-108,142r-60,0"},"\u00ce":{"d":"58,0r0,-714r88,0r0,714r-88,0xm-37,-753r101,-142r77,0r100,142r-78,0r-61,-88r-61,88r-78,0"},"\u00cf":{"d":"58,0r0,-714r88,0r0,714r-88,0xm-18,-777r0,-101r78,0r0,101r-78,0xm144,-777r0,-101r78,0r0,101r-78,0"},"\u00cc":{"d":"58,0r0,-714r88,0r0,714r-88,0xm-16,-895r98,0r70,142r-60,0"},"\u00d1":{"d":"58,0r0,-714r114,0r236,596r2,0r0,-596r88,0r0,714r-121,0r-229,-578r-2,0r0,578r-88,0xm224,-876v35,0,82,38,112,38v26,0,31,-27,35,-45r54,0v0,50,-29,111,-86,111v-42,0,-94,-38,-115,-38v-26,0,-36,27,-39,45r-54,0v0,-59,40,-111,93,-111","w":556},"\u00d3":{"d":"278,-728v197,0,230,191,230,371v0,180,-33,371,-230,371v-197,0,-230,-191,-230,-371v0,-180,33,-371,230,-371xm278,-656v-122,0,-138,134,-138,299v0,165,16,299,138,299v122,0,138,-134,138,-299v0,-165,-16,-299,-138,-299xm228,-753r70,-142r98,0r-108,142r-60,0","w":556},"\u00d4":{"d":"278,-728v197,0,230,191,230,371v0,180,-33,371,-230,371v-197,0,-230,-191,-230,-371v0,-180,33,-371,230,-371xm278,-656v-122,0,-138,134,-138,299v0,165,16,299,138,299v122,0,138,-134,138,-299v0,-165,-16,-299,-138,-299xm139,-753r101,-142r77,0r100,142r-78,0r-61,-88r-61,88r-78,0","w":556},"\u00d6":{"d":"278,-728v197,0,230,191,230,371v0,180,-33,371,-230,371v-197,0,-230,-191,-230,-371v0,-180,33,-371,230,-371xm278,-656v-122,0,-138,134,-138,299v0,165,16,299,138,299v122,0,138,-134,138,-299v0,-165,-16,-299,-138,-299xm158,-777r0,-101r78,0r0,101r-78,0xm320,-777r0,-101r78,0r0,101r-78,0","w":556},"\u00d2":{"d":"278,-728v197,0,230,191,230,371v0,180,-33,371,-230,371v-197,0,-230,-191,-230,-371v0,-180,33,-371,230,-371xm278,-656v-122,0,-138,134,-138,299v0,165,16,299,138,299v122,0,138,-134,138,-299v0,-165,-16,-299,-138,-299xm160,-895r98,0r70,142r-60,0","w":556},"\u00d5":{"d":"278,-728v197,0,230,191,230,371v0,180,-33,371,-230,371v-197,0,-230,-191,-230,-371v0,-180,33,-371,230,-371xm278,-656v-122,0,-138,134,-138,299v0,165,16,299,138,299v122,0,138,-134,138,-299v0,-165,-16,-299,-138,-299xm224,-876v35,0,82,38,112,38v26,0,31,-27,35,-45r54,0v0,50,-29,111,-86,111v-42,0,-94,-38,-115,-38v-26,0,-36,27,-39,45r-54,0v0,-59,40,-111,93,-111","w":556},"\u0160":{"d":"449,-529r-88,0v0,-75,-27,-127,-111,-127v-74,0,-118,40,-118,116v0,201,337,81,337,342v0,165,-121,212,-222,212v-167,0,-216,-86,-216,-238r88,0v0,80,5,166,134,166v70,0,124,-50,124,-126v0,-202,-337,-85,-337,-347v0,-66,28,-197,209,-197v136,0,198,68,200,199xm389,-895r-101,142r-77,0r-100,-142r78,0r61,88r61,-88r78,0","w":500},"\u00da":{"d":"50,-212r0,-502r88,0r0,502v0,105,34,154,121,154v94,0,122,-54,122,-154r0,-502r88,0r0,502v0,137,-70,226,-210,226v-143,0,-209,-79,-209,-226xm210,-753r70,-142r98,0r-108,142r-60,0","w":519},"\u00db":{"d":"50,-212r0,-502r88,0r0,502v0,105,34,154,121,154v94,0,122,-54,122,-154r0,-502r88,0r0,502v0,137,-70,226,-210,226v-143,0,-209,-79,-209,-226xm121,-753r101,-142r77,0r100,142r-78,0r-61,-88r-61,88r-78,0","w":519},"\u00dc":{"d":"50,-212r0,-502r88,0r0,502v0,105,34,154,121,154v94,0,122,-54,122,-154r0,-502r88,0r0,502v0,137,-70,226,-210,226v-143,0,-209,-79,-209,-226xm140,-777r0,-101r78,0r0,101r-78,0xm302,-777r0,-101r78,0r0,101r-78,0","w":519},"\u00d9":{"d":"50,-212r0,-502r88,0r0,502v0,105,34,154,121,154v94,0,122,-54,122,-154r0,-502r88,0r0,502v0,137,-70,226,-210,226v-143,0,-209,-79,-209,-226xm142,-895r98,0r70,142r-60,0","w":519},"\u00dd":{"d":"187,-280r-189,-434r97,0r136,334r141,-334r92,0r-189,434r0,280r-88,0r0,-280xm181,-753r70,-142r98,0r-108,142r-60,0","w":462},"\u0178":{"d":"187,-280r-189,-434r97,0r136,334r141,-334r92,0r-189,434r0,280r-88,0r0,-280xm111,-777r0,-101r78,0r0,101r-78,0xm273,-777r0,-101r78,0r0,101r-78,0","w":462},"\u017d":{"d":"23,0r0,-74r321,-562r-303,0r0,-78r395,0r0,81r-321,555r325,0r0,78r-417,0xm371,-895r-101,142r-77,0r-100,-142r78,0r61,88r61,-88r78,0","w":463},"\u00e1":{"d":"126,-374r-84,0v0,-122,52,-176,180,-176v163,0,163,98,163,154r0,299v0,22,0,43,26,43v11,0,16,-2,20,-5r0,60v-54,7,-117,22,-127,-64v-27,48,-79,77,-129,77v-100,0,-146,-60,-146,-156v0,-75,32,-127,101,-148r113,-34v61,-19,61,-36,61,-81v0,-50,-30,-79,-86,-79v-94,0,-92,83,-92,110xm301,-292v-56,56,-184,29,-184,148v0,54,19,92,76,92v55,0,108,-47,108,-102r0,-138xm172,-610r70,-142r98,0r-108,142r-60,0","w":444},"\u00e2":{"d":"126,-374r-84,0v0,-122,52,-176,180,-176v163,0,163,98,163,154r0,299v0,22,0,43,26,43v11,0,16,-2,20,-5r0,60v-54,7,-117,22,-127,-64v-27,48,-79,77,-129,77v-100,0,-146,-60,-146,-156v0,-75,32,-127,101,-148r113,-34v61,-19,61,-36,61,-81v0,-50,-30,-79,-86,-79v-94,0,-92,83,-92,110xm301,-292v-56,56,-184,29,-184,148v0,54,19,92,76,92v55,0,108,-47,108,-102r0,-138xm83,-610r101,-142r77,0r100,142r-78,0r-61,-88r-61,88r-78,0","w":444},"\u00e4":{"d":"126,-374r-84,0v0,-122,52,-176,180,-176v163,0,163,98,163,154r0,299v0,22,0,43,26,43v11,0,16,-2,20,-5r0,60v-54,7,-117,22,-127,-64v-27,48,-79,77,-129,77v-100,0,-146,-60,-146,-156v0,-75,32,-127,101,-148r113,-34v61,-19,61,-36,61,-81v0,-50,-30,-79,-86,-79v-94,0,-92,83,-92,110xm301,-292v-56,56,-184,29,-184,148v0,54,19,92,76,92v55,0,108,-47,108,-102r0,-138xm102,-634r0,-101r78,0r0,101r-78,0xm264,-634r0,-101r78,0r0,101r-78,0","w":444},"\u00e0":{"d":"126,-374r-84,0v0,-122,52,-176,180,-176v163,0,163,98,163,154r0,299v0,22,0,43,26,43v11,0,16,-2,20,-5r0,60v-54,7,-117,22,-127,-64v-27,48,-79,77,-129,77v-100,0,-146,-60,-146,-156v0,-75,32,-127,101,-148r113,-34v61,-19,61,-36,61,-81v0,-50,-30,-79,-86,-79v-94,0,-92,83,-92,110xm301,-292v-56,56,-184,29,-184,148v0,54,19,92,76,92v55,0,108,-47,108,-102r0,-138xm104,-752r98,0r70,142r-60,0","w":444},"\u00e5":{"d":"126,-374r-84,0v0,-122,52,-176,180,-176v163,0,163,98,163,154r0,299v0,22,0,43,26,43v11,0,16,-2,20,-5r0,60v-54,7,-117,22,-127,-64v-27,48,-79,77,-129,77v-100,0,-146,-60,-146,-156v0,-75,32,-127,101,-148r113,-34v61,-19,61,-36,61,-81v0,-50,-30,-79,-86,-79v-94,0,-92,83,-92,110xm301,-292v-56,56,-184,29,-184,148v0,54,19,92,76,92v55,0,108,-47,108,-102r0,-138xm123,-690v0,-55,44,-99,99,-99v55,0,99,44,99,99v0,55,-44,99,-99,99v-55,0,-99,-44,-99,-99xm165,-690v0,31,26,57,57,57v31,0,57,-26,57,-57v0,-31,-26,-57,-57,-57v-31,0,-57,26,-57,57","w":444},"\u00e3":{"d":"126,-374r-84,0v0,-122,52,-176,180,-176v163,0,163,98,163,154r0,299v0,22,0,43,26,43v11,0,16,-2,20,-5r0,60v-54,7,-117,22,-127,-64v-27,48,-79,77,-129,77v-100,0,-146,-60,-146,-156v0,-75,32,-127,101,-148r113,-34v61,-19,61,-36,61,-81v0,-50,-30,-79,-86,-79v-94,0,-92,83,-92,110xm301,-292v-56,56,-184,29,-184,148v0,54,19,92,76,92v55,0,108,-47,108,-102r0,-138xm168,-733v35,0,82,38,112,38v26,0,31,-27,35,-45r54,0v0,50,-29,111,-86,111v-42,0,-94,-38,-115,-38v-26,0,-36,27,-39,45r-54,0v0,-59,40,-111,93,-111","w":444},"\u00e9":{"d":"128,-324r191,0v3,-78,-9,-160,-93,-160v-96,0,-99,106,-98,160xm407,-258r-282,0v0,82,0,206,103,206v80,0,91,-84,91,-124r84,0v0,57,-34,190,-180,190v-131,0,-186,-91,-186,-275v0,-134,26,-289,191,-289v177,0,180,154,179,292xm172,-610r70,-142r98,0r-108,142r-60,0","w":444},"\u00ea":{"d":"128,-324r191,0v3,-78,-9,-160,-93,-160v-96,0,-99,106,-98,160xm407,-258r-282,0v0,82,0,206,103,206v80,0,91,-84,91,-124r84,0v0,57,-34,190,-180,190v-131,0,-186,-91,-186,-275v0,-134,26,-289,191,-289v177,0,180,154,179,292xm83,-610r101,-142r77,0r100,142r-78,0r-61,-88r-61,88r-78,0","w":444},"\u00eb":{"d":"128,-324r191,0v3,-78,-9,-160,-93,-160v-96,0,-99,106,-98,160xm407,-258r-282,0v0,82,0,206,103,206v80,0,91,-84,91,-124r84,0v0,57,-34,190,-180,190v-131,0,-186,-91,-186,-275v0,-134,26,-289,191,-289v177,0,180,154,179,292xm102,-634r0,-101r78,0r0,101r-78,0xm264,-634r0,-101r78,0r0,101r-78,0","w":444},"\u00e8":{"d":"128,-324r191,0v3,-78,-9,-160,-93,-160v-96,0,-99,106,-98,160xm407,-258r-282,0v0,82,0,206,103,206v80,0,91,-84,91,-124r84,0v0,57,-34,190,-180,190v-131,0,-186,-91,-186,-275v0,-134,26,-289,191,-289v177,0,180,154,179,292xm104,-752r98,0r70,142r-60,0","w":444},"\u00ed":{"d":"60,0r0,-536r84,0r0,536r-84,0xm52,-610r70,-142r98,0r-108,142r-60,0"},"\u00ee":{"d":"60,0r0,-536r84,0r0,536r-84,0xm-37,-610r101,-142r77,0r100,142r-78,0r-61,-88r-61,88r-78,0"},"\u00ef":{"d":"60,0r0,-536r84,0r0,536r-84,0xm-18,-634r0,-101r78,0r0,101r-78,0xm144,-634r0,-101r78,0r0,101r-78,0"},"\u00ec":{"d":"60,0r0,-536r84,0r0,536r-84,0xm-16,-752r98,0r70,142r-60,0"},"\u00f1":{"d":"55,0r0,-536r80,0v2,20,-4,47,2,63v22,-49,78,-77,130,-77v141,0,141,107,141,170r0,380r-84,0r0,-370v0,-41,-3,-108,-79,-108v-45,0,-106,30,-106,108r0,370r-84,0xm178,-733v35,0,82,38,112,38v26,0,31,-27,35,-45r54,0v0,50,-29,111,-86,111v-42,0,-94,-38,-115,-38v-26,0,-36,27,-39,45r-54,0v0,-59,40,-111,93,-111","w":463},"\u00f3":{"d":"29,-268v0,-151,39,-282,193,-282v155,0,193,131,193,282v0,151,-39,282,-193,282v-155,0,-193,-131,-193,-282xm220,-52v89,0,107,-100,107,-216v0,-116,-17,-216,-107,-216v-85,0,-103,100,-103,216v0,116,17,216,103,216xm172,-610r70,-142r98,0r-108,142r-60,0","w":444},"\u00f4":{"d":"29,-268v0,-151,39,-282,193,-282v155,0,193,131,193,282v0,151,-39,282,-193,282v-155,0,-193,-131,-193,-282xm220,-52v89,0,107,-100,107,-216v0,-116,-17,-216,-107,-216v-85,0,-103,100,-103,216v0,116,17,216,103,216xm83,-610r101,-142r77,0r100,142r-78,0r-61,-88r-61,88r-78,0","w":444},"\u00f6":{"d":"29,-268v0,-151,39,-282,193,-282v155,0,193,131,193,282v0,151,-39,282,-193,282v-155,0,-193,-131,-193,-282xm220,-52v89,0,107,-100,107,-216v0,-116,-17,-216,-107,-216v-85,0,-103,100,-103,216v0,116,17,216,103,216xm102,-634r0,-101r78,0r0,101r-78,0xm264,-634r0,-101r78,0r0,101r-78,0","w":444},"\u00f2":{"d":"29,-268v0,-151,39,-282,193,-282v155,0,193,131,193,282v0,151,-39,282,-193,282v-155,0,-193,-131,-193,-282xm220,-52v89,0,107,-100,107,-216v0,-116,-17,-216,-107,-216v-85,0,-103,100,-103,216v0,116,17,216,103,216xm104,-752r98,0r70,142r-60,0","w":444},"\u00f5":{"d":"29,-268v0,-151,39,-282,193,-282v155,0,193,131,193,282v0,151,-39,282,-193,282v-155,0,-193,-131,-193,-282xm220,-52v89,0,107,-100,107,-216v0,-116,-17,-216,-107,-216v-85,0,-103,100,-103,216v0,116,17,216,103,216xm168,-733v35,0,82,38,112,38v26,0,31,-27,35,-45r54,0v0,50,-29,111,-86,111v-42,0,-94,-38,-115,-38v-26,0,-36,27,-39,45r-54,0v0,-59,40,-111,93,-111","w":444},"\u0161":{"d":"369,-379r-84,0v0,-68,-18,-105,-79,-105v-27,0,-87,7,-87,82v0,63,66,75,132,97v65,22,131,45,131,151v0,113,-73,168,-173,168v-182,0,-184,-135,-184,-190r84,0v0,65,18,124,100,124v27,0,89,-13,89,-89v0,-72,-66,-87,-131,-109v-65,-22,-132,-41,-132,-152v0,-100,78,-148,171,-148v156,0,162,108,163,171xm343,-752r-101,142r-77,0r-100,-142r78,0r61,88r61,-88r78,0","w":407},"\u00fa":{"d":"408,-536r0,536r-80,0v-2,-20,4,-47,-2,-63v-22,49,-78,77,-130,77v-141,0,-141,-107,-141,-170r0,-380r84,0r0,370v0,41,3,108,79,108v45,0,106,-30,106,-108r0,-370r84,0xm182,-610r70,-142r98,0r-108,142r-60,0","w":463},"\u00fb":{"d":"408,-536r0,536r-80,0v-2,-20,4,-47,-2,-63v-22,49,-78,77,-130,77v-141,0,-141,-107,-141,-170r0,-380r84,0r0,370v0,41,3,108,79,108v45,0,106,-30,106,-108r0,-370r84,0xm93,-610r101,-142r77,0r100,142r-78,0r-61,-88r-61,88r-78,0","w":463},"\u00fc":{"d":"408,-536r0,536r-80,0v-2,-20,4,-47,-2,-63v-22,49,-78,77,-130,77v-141,0,-141,-107,-141,-170r0,-380r84,0r0,370v0,41,3,108,79,108v45,0,106,-30,106,-108r0,-370r84,0xm112,-634r0,-101r78,0r0,101r-78,0xm274,-634r0,-101r78,0r0,101r-78,0","w":463},"\u00f9":{"d":"408,-536r0,536r-80,0v-2,-20,4,-47,-2,-63v-22,49,-78,77,-130,77v-141,0,-141,-107,-141,-170r0,-380r84,0r0,370v0,41,3,108,79,108v45,0,106,-30,106,-108r0,-370r84,0xm114,-752r98,0r70,142r-60,0","w":463},"\u00fd":{"d":"168,11r-158,-547r92,0r106,430r2,0r94,-430r92,0r-155,572v-20,74,-42,140,-143,140v-33,0,-47,-2,-61,-3r0,-66v12,2,28,3,49,3v61,0,65,-55,82,-99xm153,-610r70,-142r98,0r-108,142r-60,0","w":406},"\u00ff":{"d":"168,11r-158,-547r92,0r106,430r2,0r94,-430r92,0r-155,572v-20,74,-42,140,-143,140v-33,0,-47,-2,-61,-3r0,-66v12,2,28,3,49,3v61,0,65,-55,82,-99xm83,-634r0,-101r78,0r0,101r-78,0xm245,-634r0,-101r78,0r0,101r-78,0","w":406},"\u017e":{"d":"39,-464r0,-72r323,0r0,70r-240,394r238,0r0,72r-333,0r0,-66r243,-398r-231,0xm334,-752r-101,142r-77,0r-100,-142r78,0r61,88r61,-88r78,0","w":389},"\u00a0":{"w":240}}});
